// Layer 1
float weight_1_data[] = { 0.3904958, -0.8647683, 0.74091905, 0.08285326, -0.21970852, 1.0906202, 0.21789883, -0.47853303, 0.42876694, -3.0002165, -0.95384926, -0.021730578, 0.256645, 0.22930415, -0.53543174, -0.050556287, -0.28560144, -0.0906558, -1.6418236, 1.5890296, -0.37646455, -0.093809195, 0.3586318, -0.89311624, -0.40340185, 0.18894923, 0.43872955, 0.13468522, 0.34640223, 0.14968911, 0.34704933, -0.58621716, 1.2435932, 0.46561813, -0.6728183, -1.1163354, -0.06390092, 0.5682291, 0.80933976, 0.029207634, 0.5649115 };
int weight_1_indices[] = { 2, 0, 1, 2, 0, 1, 0, 1, 2, 1, 0, 1, 2, 0, 1, 2, 0, 1, 2, 0, 2, 1, 2, 0, 1, 2, 0, 1, 2, 0, 1, 2, 0, 1, 2, 0, 1, 2, 0, 1, 2 };
int weight_1_indptr[] = { 0, 1, 1, 1, 4, 4, 4, 4, 4, 4, 6, 6, 6, 6, 6, 9, 9, 9, 9, 10, 10, 10, 10, 13, 13, 13, 13, 16, 16, 16, 16, 19, 21, 21, 21, 21, 21, 21, 23, 23, 26, 29, 29, 32, 32, 32, 32, 32, 32, 32, 35, 38, 38, 38, 38, 38, 38, 38, 41, 41, 41 };
int weight_1_shape[2] = {60, 3};
float bias_1[] = { -0.2911171, -0.43183744, -0.01940899, -0.2081581, -0.03376736, -0.06378076, -0.13524845, -0.0111066215, -0.021634271, 0.0, 0.0, 0.0, -0.52329, -0.55867386, 0.0, -0.36985534, -0.19841948, 0.0, 0.10411544, -0.03074994, 0.0, -0.5697658, 0.04313691, 0.0, -0.026115213, 0.0, 0.30246925, -0.024160253, -0.093951024, -0.52831596, 0.51617795, -1.1655954, -0.27683336, -0.5206111, -0.5097031, -0.20543727, -0.4233991, 0.0, -0.10335151, 0.59783703, -0.31870198, -0.53717905, 0.074018516, -0.5085099, -0.10260893, -0.34218842, -0.0187512, -0.465819, -0.3300748, -0.68175834, 0.08725846, -0.30903763, -0.083648615, -0.01351574, -0.08627543, 0.0, 0.0, -0.83237123, 0.0, -0.02281932 };

// Layer 2
float weight_2_data[] = { 0.07887816, -0.7366374, 0.012724933, 0.2023583, -0.209651, 0.8284239, -0.41777658, 0.18758635, 0.05727107, 0.116943754, 0.27392745, -1.3979046, -0.027693078, 0.6654147, -0.051417638, -0.19225879, 1.3608774, 0.33818796, 0.09757913, 0.20692028, -0.27296802, -0.5500105, -0.21806416, -0.10781847, 0.39242586, 0.14876026, -1.2561848, -2.1593962, 0.07679956, 0.16226366, -0.13612927, -0.24325183, 0.50432324, 0.01637907, 0.028910765, -0.13888468, -1.060765, -0.83914393, 0.23928194, 0.07495752, -0.03574391, -0.6677219, -0.11480637, 0.40866986, -0.5471397, 0.47711274, -0.5889324, -0.42277634, -0.3154488, 0.2736967, -0.030795967, -0.12880737, -0.12814206, -0.15664229, 0.12908025, -0.053416885, -0.033561286, -0.41479218, -0.035614222, 0.07967832, -0.15180692, 0.5366335, -0.69530433, -0.17880872, -1.2596525, 0.114304736, -0.32046232, -0.10421218, 0.43418258 };
int weight_2_indices[] = { 3, 14, 18, 26, 30, 31, 37, 39, 49, 50, 57, 9, 18, 30, 37, 39, 49, 0, 3, 9, 22, 26, 39, 49, 57, 9, 18, 31, 39, 40, 42, 49, 50, 57, 3, 14, 18, 22, 26, 30, 31, 39, 40, 49, 50, 57, 9, 18, 30, 39, 49, 50, 3, 9, 14, 18, 26, 30, 31, 37, 39, 40, 42, 49, 3, 9, 30, 39, 50 };
int weight_2_indptr[] = { 0, 0, 0, 0, 0, 0, 0, 0, 0, 0, 0, 0, 0, 0, 0, 0, 0, 0, 0, 0, 0, 0, 0, 0, 0, 0, 0, 0, 11, 11, 11, 11, 11, 11, 17, 17, 17, 25, 25, 34, 46, 52, 52, 52, 64, 64, 64, 64, 64, 64, 64, 64, 64, 64, 64, 69, 69, 69, 69, 69, 69 };
int weight_2_shape[2] = {60, 60};
float bias_2[] = { 0.0, 0.0, -0.047650985, -0.12391529, -0.02303647, -0.057208348, -0.013945916, -0.023609366, -0.1063889, -0.056523472, -0.010798057, 0.0, -0.016634328, -0.029425405, -0.02523312, -0.02637676, -0.0970242, -0.0124465395, -0.120274454, -0.021761945, -0.08604963, -0.12326892, 0.0, -0.016763268, -0.041892383, -0.07312924, 0.0, -0.010247645, -0.013481489, -0.0694695, -0.02065827, 0.0, -0.0121451905, -0.13935675, -0.091790944, -0.02037895, 0.2614051, -0.0188924, 0.04255195, 0.47844163, 0.057910554, 0.0, -0.17165627, 0.37109393, -0.08037674, -0.16728902, 0.0, -0.020868365, -0.07998695, -0.086400434, -0.04705801, -0.09727206, 0.0, -0.06867911, 0.07887775, 0.0, -0.074816816, -0.058200426, -0.16044252, -0.09770757 };

// Layer 3
float weight_3_data[] = { 0.67340946, -0.65483314, 0.82210577, 1.4467415, 0.17823604, 0.9788159, 1.4703482, -1.3249427, 0.8214464, 0.72098815, 0.4727108, -0.12616442, -0.012963252, -0.46497568, -1.113375, 0.046010904, 0.9221834, 1.0686723, 1.2448303, 0.022027405 };
int weight_3_indices[] = { 33, 36, 38, 39, 40, 54, 27, 33, 36, 38, 39, 43, 54, 27, 33, 36, 38, 40, 43, 54 };
int weight_3_indptr[] = { 0, 6, 13, 20 };
int weight_3_shape[2] = {3, 60};
float bias_3[] = { -0.050380304, 0.012435765, 0.12497402 };

