float weight_1[] = {0.5588171, 0.19604978, -1.602562, 0.1702633, 0.6260297, -2.4772265, 0.0005999553, 0.0026267502, -0.0012127579, 0.90135145, -0.8452861, 0.31724852, 0.0011302407, 0.0010188962, -0.002159705, 0.00063892966, -0.00169252, -0.0010897375, -1.0485106, 1.3032529, 0.21086662, -0.0009768211, 0.001294798, 0.0011436567, 0.00030884193, 3.7890277e-05, 0.0005922473, 1.122437, 0.8993806, 0.0011848053, -0.0002509714, 0.0033788905, -0.0014733117, -0.001093203, -0.0011380387, -0.0013036338, 0.002481368, 0.002312688, 0.00021779406, -8.6670596e-05, 0.0002212745, -0.0033102995, 0.0024076132, 0.0013260134, 0.0009004231, 0.0005868928, -4.92236e-06, -0.0006041054, -0.0007241294, 0.0019291913, -0.0015507294, 0.00054413057, -0.00022179447, -0.0019244462, -0.0002612538, 0.00021231489, -0.0012601691, 0.0008747281, -0.0013740127, -0.00038811326, -0.0014716292, -0.00010676333, 0.0001894031, 0.00049938215, -0.001005368, -0.0006725328, -0.002913522, -0.00056178775, 0.00029165705, 0.00069794944, -0.0026835168, 0.0003972243, -0.9705804, 0.14568362, -0.20859885, -0.0009068485, 0.00087118975, -0.0002557591, -0.0005899756, -0.0014508418, 5.2661402e-05, 0.00048460846, 0.0022440008, -0.00071217207, 0.0016646128, 0.0031315298, -0.00080107857, -0.00030249043, -0.0013979243, 0.00059191213, -0.0025792716, 0.0007202616, -0.0016360234, -0.0026871522, 0.00087229424, 0.0009447679, 0.7038818, -4.063839, 0.25216493, -0.0002865012, 0.002001009, 0.0012242635, -0.00021117997, 0.00010331428, 9.543291e-05, -1.3783479, 0.7029805, -0.0023943507, 0.00057886855, -7.965873e-05, -0.001520514, 0.0028340383, -0.0012743289, 0.00046278245, -0.0007895427, 0.0018644752, 0.002599827, -0.025479978, 0.14935817, 1.1800296};
float bias_1[] = {0.40011698, 0.47350842, -0.47056884, 0.17641114, -0.012057625, -0.00500121, -0.46431005, -0.13310552, -0.45285723, -0.08455189, -0.50798315, -0.33341742, -0.007204341, -0.32836476, -0.029707711, -0.42012382, -0.013802608, -0.059745844, -0.013854299, -0.39540616, -0.23145835, -0.30057335, -0.0099359, -0.57735074, 0.65061814, -0.048163526, -0.37952948, -0.05901171, -0.34940636, -0.061614264, -0.041384008, -0.028230768, 0.11906542, -0.24585672, -0.0036135642, 0.61171675, -0.5453611, -0.04027355, -0.0081490865, -0.085064635};
float weight_2[] = {-0.00020721045, 0.05852223, 0.0011702988, 0.43108195, -1.323683e-05, 0.00089721585, 0.0007569585, 0.0012210086, 0.0012276684, -0.7331837, 0.00091778045, -0.00042643212, -0.0010306623, -0.0003825211, 0.00048991217, -0.00016624824, -0.00071686483, -0.0038546778, 0.00040873035, -0.0023946115, 0.003030687, -0.0015583634, -0.0012923626, 0.0012757876, -6.4114385e-05, -0.00036786954, 3.8104074e-05, -0.0005525275, 0.0018353203, 0.00053746824, 0.0006507043, 0.0011096846, -0.0005262816, -0.0003857025, -3.7377013e-05, -0.00010171067, -0.00011302513, -0.001147934, 0.0015892003, 9.188098e-05, -0.00041858607, -0.0019311993, 0.0008583481, 0.0012511364, 0.0018045102, -0.0014411162, -0.00072093145, -0.0007029292, 0.0029124727, -0.0013703157, -0.0010545148, 0.00043864734, 0.00092064, 3.3295248e-05, 0.0016267302, 0.0012562646, 0.001358987, 0.00038631365, -0.0013897289, -0.0010270687, -0.0014634974, 0.00021196587, 0.003111139, -0.003432092, -0.0021550194, 0.0010661461, 4.7220557e-05, -0.0026320494, -7.2396506e-06, 0.001782775, -0.00085620943, 0.0015643955, -0.0006991116, -0.0007051239, -0.0033159456, -0.0013160254, 0.0013810587, -0.000498829, 0.0010340492, -0.0023338431, 0.001139879, 6.773704e-05, 0.0017800278, -0.0032541272, 0.0038445096, -0.0020107254, -0.00031603896, -0.0002236017, -0.0028016753, -0.0017661826, 0.00022486609, -0.0002349038, -0.001561047, -0.0028281696, -0.00080310064, 0.0002652274, 0.004350389, 1.2727396e-06, -1.3050623e-05, 0.0012475324, -0.00014319927, -0.0025239782, -0.00044961966, 0.000742408, 0.00064112304, 0.00042680884, -0.0012933385, -0.0013039683, 0.00021696219, 0.00056301104, 0.0032848269, -0.0011436443, 0.0026713652, -0.0006056259, 0.000399768, 0.0006620923, -0.00010117813, 0.00062940555, 0.0011629119, 0.002159343, -0.0020887062, -0.093603514, -8.1075355e-05, 0.9338816, 0.00030522223, -0.0006886288, 0.17818475, -5.7293233e-05, 0.0006229301, 0.5219334, 0.0023277593, 0.00038189706, 0.001995733, 0.0007564459, 0.0010903443, -0.00082776, -0.00056630885, -0.00011552968, -0.0033974494, 0.0017073315, 0.003742086, 0.00076033594, 0.0018498787, 0.0012171029, -0.0023515103, 8.3278166e-05, 0.00095423206, 0.0040870253, 0.0026944121, 0.0010340818, -0.003292962, 0.00078050926, 1.0506184, 0.0013369821, -7.639744e-05, -0.06703052, 0.00010960526, 0.00027407144, -0.0006117328, -0.055365857, 0.0013893852, 0.0005698799, 0.0024390114, -0.00064625434, 0.00021900116, -0.00074807066, 0.0005842044, 1.669227e-05, 0.0011586659, -0.00090043363, 0.0036657182, -0.0021269014, -0.003297254, 7.7875564e-05, -0.0010293717, 0.0027885118, 0.0012045798, -0.0001788307, 0.00127898, -0.0012296666, 0.0023846743, 0.00015782686, 0.0006948238, 0.0024644518, -0.0007518055, 0.001131403, 0.0037125566, 0.0007211026, -0.0012954788, 0.000984465, 0.0008803025, -0.0010620654, -0.0023970963, 0.0007571749, 0.0018648886, 0.00090628583, -0.00097068935, -0.00045961933, 0.0012894936, 0.0016257192, -0.27839735, -0.04506498, 2.750606e-05, -0.0012743663, -0.00051943783, 0.00046138657, 0.018821908, 0.0003047553, -6.559718e-05, -0.14026988, 0.002221041, 9.624637e-05, 0.000779061, 0.00014180347, -0.00161312, 0.0011090513, 0.0005021273, 0.0028018989, -0.00041338423, -0.0008524296, -0.0028510138, 0.0008080984, -0.0022426075, 0.00022526429, 0.47567028, -0.00022264238, -3.7392994e-05, -0.00088324933, -0.0015563862, 0.0006519115, -0.00087417, 0.00023953593, -0.00026362325, -0.0018376709, 4.611971e-05, -0.9813589, 0.0004958358, 6.273226e-05, 0.0001989702, 0.47763664, -0.0007916201, -0.0021948777, 0.0013878667, 0.000708878, 0.0028061015, 0.0007562047, 0.00014366931, -0.0011855253, 0.0015600985, -0.00054923835, -0.0015709484, 0.0012131027, 0.0007642957, 0.0005413088, 0.0011255802, -0.0009095438, -0.0003407086, 0.0013154012, -0.001251437, 0.0023805154, -0.00056903996, -0.001246144, 0.001637271, 0.0023829252, 3.3905962e-09, -1.33141875e-05, 0.0012000143, -0.00035991758, -0.0018214568, 0.002402348, 6.353295e-05, 0.00026599737, -0.0035389108, 0.0016860431, 6.3318294e-06, 0.0008441084, -0.0010924863, 0.00011066976, -0.0012215952, 0.004114054, 0.002488169, -0.0007555578, -2.4319947e-05, -0.0003887181, -8.59627e-05, -0.0008956368, 0.00068492093, 0.0013509216, 4.932843e-05, -0.0005425002, -0.0025331145, -0.0028051622, 0.00021822462, 0.0005480351, 0.0018093834, 0.000638906, -0.0002163164, -0.001972476, 0.00089217915, 0.0009507919, 0.0011116951, -0.00013401778, -0.0004589036, 0.0010078363, -0.0010313385, 0.002158028, 0.00024201267, 0.0017701492, 0.0013393887, -0.0021552998, -0.002387369, -0.001349756, 0.0009025685, -0.0015732357, -0.00074208307, 0.0020763609, 0.0006753567, -0.000125535, 0.0011992839, 0.0014657504, 0.0022306817, 0.0016436743, -0.002891805, 0.0016611292, -0.0042967917, 0.0015278975, -0.0016178874, 0.001140679, 0.0006289199, 0.00063460175, 0.00085575256, -0.00048572326, 0.0002864449, 0.00035345647, 0.002128401, 0.00043445977, -0.0012736224, 0.0017333393, -0.0016528154, -0.0013668581, 0.0011364523, 0.0018113235, -0.0013603834, 0.0002003629, -0.00058141444, 0.0019192381, 0.0011609879, -0.0014686743, 0.0002177688, 0.0007630433, 0.00048971316, 0.0010779683, 0.0015217066, 0.0011523128, -0.0012647726, -3.4652418e-05, 0.001416065, -0.0012800545, -0.0004956862, 0.0015852175, -0.00086272985, -0.0009754753, 0.00017036649, 0.00047046895, -0.0008923147, -0.0006578081, 0.0016133682, -0.0028613494, -0.0002860392, -0.0008260963, -0.0010826425, 0.0004086824, 0.00097073155, -0.0010368787, 0.002967467, 0.0007517032, 0.00015965574, -0.0018595528, -0.0017254027, -0.0018819906, -7.457187e-06, -0.0016879407, 0.0009870095, -0.0033343956, 0.0010148349, -0.0013867656, -0.0038958301, 0.0015951497, -0.0022470942, 0.0003996024, 0.0061481227, -0.00076136476, -0.0009231564, 0.003371554, -0.0014804773, -8.58166e-05, -0.00026700008, 0.0012079908, 0.0017830366, 0.0005789542, -0.000169698, -0.0031126495, -0.0014476302, 0.0032908362, -0.00037760375, 0.0007502306, 0.0028667245, -0.0011621105, 0.0002921091, -5.153683e-05, 8.808047e-05, -0.00057706813, 0.000655977, 0.0026134206, -0.0006504938, -0.0011577818, 0.0012646902, -0.0008057033, -0.0014483691, -0.003815862, -0.0004278971, -0.001254316, 0.0024131485, 0.0012893963, 0.00063744176, 0.00074941537, 0.0003563686, -0.00025545916, 0.001534638, 0.00023377535, 0.0007564337, -0.002749681, -4.4971704e-05, -0.0012536981, -0.0005998701, 0.0007339205, 0.0010732966, -0.0008572526, -0.00064398634, -0.0022241077, -0.71653664, 0.06841454, -0.0023060157, 0.10312006, -0.001951105, 0.0026036664, -0.7730569, -0.00051476597, 0.00092098373, -0.010099908, -0.0014780398, -0.00046935072, 0.0012989196, 0.00056073593, 0.0013196704, -0.0004650067, -0.0002147028, 0.00077867217, -0.00049474323, -0.0027183606, 0.000731092, -0.0010423712, 0.0004569477, -0.0018169247, -0.04818339, 0.0005987832, -0.0011242615, -0.00033001983, 0.00022095372, -0.00096801296, -0.0025651962, -0.0030573774, 0.00040336855, -0.0009236422, 3.0305453e-05, 0.18830274, -0.0028448128, 0.0016858763, 0.00059972523, -0.6061954, -0.0029567254, 0.00046943, 0.00078570365, 5.1964307e-05, 4.6753034e-05, 0.00048540698, -0.00076918944, -0.0005099685, -0.0015128957, -0.00018708361, -0.0016378924, -0.0003753124, -0.000265109, 0.0012902688, 0.0006442965, 0.0025098682, -0.0003206766, -0.0013111869, -0.0004476811, 0.001773184, 0.0004372694, 0.0019319218, -0.0012255512, 0.001006974, 0.0019556473, 0.00034252857, 0.0006773869, -0.0009993331, 0.0003142811, -0.0028884695, -0.002748704, 0.0008735979, 0.001342155, 0.0010315803, 0.0026251427, -0.0005590819, -0.0005993417, 0.00058785325, -0.000589799, 0.0017360469, 0.00016019231, 0.0007154748, 0.00014806318, -0.0025260807, -0.00020392751, -0.0021136133, -0.0017949112, 0.00073651294, 0.0008769166, 0.00016359682, 0.00042398478, -0.0015603589, -0.001861865, -0.0007136274, -0.004206525, -0.00039617618, 0.00037509587, 0.0010635633, 0.0026849885, -0.0014385211, 0.00037418387, 4.6169152e-05, -0.0015162504, -0.0006308786, 0.0011234693, -0.001937696, -0.0013031191, -7.761268e-05, 0.00056537485, -0.000118189026, 0.0012324799, -0.00080019113, 0.00021031155, -0.0013435775, -0.00047290744, -0.0017846277, -0.0002276568, -0.0011512185, 0.0013785166, 2.8124487e-06, -0.440066, -0.23131691, -0.0024603829, -0.14097817, -0.002304167, 0.0002564059, 0.40328956, 0.00068623206, -0.002741384, 0.22270909, -0.0014709741, 0.00083427306, 0.0001224769, -0.0008058619, -0.0010508394, -0.0015031141, 0.0016910865, -0.0008018594, 0.0005787258, -0.0018757486, 0.0011176668, 0.0034233388, -0.00085039495, -0.0009038647, 0.49121973, -0.00065203756, 0.0012726022, 0.0001766861, 0.002263912, 0.0012449849, 0.00088032626, -0.00096534274, -1.6412226, -0.00048170856, -3.806487e-05, -0.6157376, 0.0011723788, 0.001423774, -0.0013112983, 0.24706107, -0.040155336, -1.0461594, -0.0013791379, 0.7390702, -0.0018336871, -0.00012545561, 0.00014276111, 0.0008047467, -0.0015752127, 0.100438304, 0.0028774517, 0.0023801834, 0.0009799214, 0.0021324856, 0.0016218324, 0.0018002379, 0.0019579758, -0.0009267856, 0.00039661347, -0.0006495069, 0.00094548345, -0.002182037, -0.0016502705, 0.004242659, 9.832607e-05, 0.0019397677, -0.00030857307, -0.0008408688, 0.0017475617, -0.0009501618, -0.00012743124, -0.0030273944, 0.0040868786, -0.0010318067, -4.8296155e-05, 0.21377327, -0.0035444447, 0.00045966473, -0.00051204977, 0.26218283, -0.00056397973, 0.0011919759, 0.0028687154, -0.00038484007, -0.0010655649, -0.0027405012, -0.0011199547, 0.0007970419, -0.0034308694, 0.0015026453, -0.0031802128, 0.0013316477, -0.0024310022, 0.0016315148, -0.0004404564, 0.0009073561, 0.00022507762, 0.0025237324, -0.0007026451, -0.0014691381, 0.0017653566, 0.00227874, 0.0019215308, 0.0023158365, 0.0005500135, -7.516556e-05, -0.0034115114, -0.0013094947, 0.00032935088, -0.00070994766, 0.0004337579, 0.0013918236, 6.9453556e-05, 0.0006668074, -0.0020832736, 0.0020154195, 8.053472e-05, -0.0011420307, -0.0009201915, -0.0032604183, -6.606072e-05, -0.000550261, 0.00025273534, -0.00040869095, 0.004195871, 0.0015234554, 0.0007159946, -0.00027246797, 0.00058557873, -0.0011192681, 0.0003262122, 0.002744405, 0.00062563847, -0.0015681875, 6.0256396e-05, -0.0013647254, 0.0019313823, 0.00066783355, -0.0013636213, 0.00091769034, 0.0009573363, 0.000898577, -0.0006462789, 0.00048181927, -0.0001464581, -0.00045113545, -0.0015058077, -0.0032509216, 0.0017793167, -0.0006031541, 0.001325144, 0.001361416, -0.001488843, -0.0005215299, -0.0034397831, -0.0025043068, -0.0024877554, 0.0019542826, -0.0024836112, -0.0020757993, -0.0013692977, 0.0021662472, -0.0012294766, -0.0008254834, 0.0021202555, -0.00062806736, 0.0015703375, -0.00053343293, -0.0010971499, -0.0010084065, -0.0008446793, -0.0006556829, 0.0017091847, 0.00025186234, -0.00096032035, -0.0024721045, -0.00090764294, 0.0016154884, 0.00026057265, 0.0027300569, -0.0018424996, -0.0013370693, 0.001798376, -0.00097386504, -0.0010300926, 0.00014283336, -0.001461192, -0.000882317, -0.00095743465, -0.00057535106, -0.00089100585, -0.00030507086, 0.0021795707, -0.0009732786, -0.0002568523, 9.549259e-05, 0.0008285303, -0.0011007655, 0.0008496022, -0.0031689052, -0.2854118, -0.00068561535, -0.00052348385, 0.00019187246, -0.000538182, -0.0023655242, 0.032132097, -0.0017122043, -0.00077787903, 0.0014643382, 0.0015216097, -0.0001988138, -0.0028378442, 0.0011025395, -0.0010354127, 0.00016414895, -0.0012411604, -0.0007185235, -0.00075096666, -0.0015219955, 0.00094302476, 0.00021137181, 0.001797116, -0.0001186991, -0.00022734556, -0.0012978686, 0.0014606474, 0.0025767027, 0.0007355242, 0.0011280355, -0.001029941, -0.0013261416, -0.001287889, -0.000110304165, -9.650705e-05, 0.0005538395, -0.001792107, 0.0022160453, -0.001581747, 3.0297648e-05, 0.0023504258, 0.0017348578, -0.006206364, 0.20082846, 0.00090359343, -0.0003363815, -2.1573143, 4.7673457e-05, 0.00040405593, 0.46818423, -0.0010666527, -0.0015244395, 0.0034792298, 0.0003656095, -0.0014504404, 0.0025698324, -0.0015983157, 0.0030739042, -0.0017904635, 0.00043539947, -0.00086662016, -0.0010231425, -0.00089197396, 0.0016195903, -0.00042878737, -0.0013000851, 0.00091336085, -0.002564698, 0.00065109844, -0.0005390103, -0.0016608036, 0.0013962339, 0.00046810764, -0.0031814077, -0.0005238112, 0.00068542414, -0.0014795469, -0.0005441633, -0.00087504776, -0.13090356, 0.002472287, -0.0033004885, 0.0015945944, 0.00089527405, 0.000757169, 0.00019778492, 0.000939833, 0.0012396085, 0.0010041315, -0.0007390786, 0.0012944547, 0.0009084858, 0.0008894896, -0.0004821804, 0.0007632538, -0.0013788459, -0.00028593966, -0.00161952, -0.00037403248, 0.0003092545, 0.0011808523, 0.0006030048, -0.002563815, -0.0011738471, 0.0017587449, 0.0014486981, 0.0006393885, 0.0011764221, 0.0012708256, -0.00087988784, -0.00047377573, -0.0031127748, -0.00022902281, -0.0007973542, -0.0018027347, -0.0012984497, -0.00013407297, 0.001751849, -0.003298581, 0.0032962612, -0.00030445305, -0.7723298, -0.002390889, 5.196651e-05, 0.00021508621, -0.0004708476, -0.00038552802, -0.0012519703, 0.00042191893, -0.9977387, 0.0022107593, -0.00177553, -0.0004640271, 0.00028071698, -0.000252716, -0.0005981389, -0.0012184684, 0.00081261655, -0.0007464099, 0.0022059856, -0.00090676243, 0.00067984074, -0.0012392844, 0.002692549, 8.508018e-05, 0.0012833753, -0.0015779434, 0.0019023573, 0.00011555853, 0.00046174368, 0.00017465209, 0.001983882, -0.1218325, -0.0005818473, 5.1545027e-05, -9.4131785e-05, 0.000553704, 0.000931995, 0.0006307903, -0.3189294, -0.0014772601, 0.0021306847, 2.6490772e-05, 0.00086469494, 0.0014355653, -0.002124189, -0.0013920928, 0.0016509884, 0.0009939304, -0.001115042, 0.0007606879, -0.0007098268, 0.00128618, -0.0031103115, -0.0005304332, 0.0007390358, 0.0006407543, 0.0021430408, -0.0011330165, -0.0024449886, -0.00047979126, 0.0009974742, -0.0021916293, -0.0013143383, -0.0010048298, 0.0013013335, -0.0012037429, 0.00040186025, -0.0016280967, -6.204008e-05, 0.0011994983, 0.0015624916, -0.00020898692, 0.0024623347, -0.0016553444, 0.00049134635, -0.0022059549, 0.0028106538, -0.0012949792, -0.00034264848, -0.00070154085, -0.0014733038, -0.0018438398, -0.0002118313, -0.00055338116, 7.711258e-05, 0.0013173217, 0.00023598605, -0.0005024328, -0.00015090394, -0.0004686601, -0.000601358, -0.0024832534, 0.0026857415, -0.0009930613, 0.0010578779, 0.0004452754, -0.00073565455, -9.0094516e-05, 0.0015537166, 0.0005462008, 0.00089810067, -0.0011516474, 0.001365942, -0.0002381953, 0.0017184014, -0.0023633814, -0.0024719448, 0.0028082186, -0.0012516743, 0.0013306921, -0.00054254173, -0.00033646618, 0.00087861985, 3.6609446e-05, -0.0002801274, -0.0014618023, 0.0005504396, -0.0006809711, -0.0007044166, 0.0010477868, -0.00053098175, 0.00096338405, -0.00075648865, 0.0011317637, 0.0016616464, -0.0024210645, -3.802354e-05, 0.0012662929, -0.00071230484, -0.000621609, 0.0016304542, -0.00022256555, -0.001038414, 0.00067114085, 0.0008137956, -0.00057886285, -0.00032014016, -0.0007402749, -0.00025996438, 0.0009719131, -0.0003854013, 0.0012512428, 0.0010051474, -0.00050589076, 0.00022456277, 6.588921e-05, 7.6865195e-05, 0.0033076634, -8.4075844e-05, -0.0024727737, -0.00017708755, 0.0016610173, -0.0020811511, -0.000862563, -0.00017793977, -0.00016542303, -0.0012948776, 0.00067083654, -0.0025635106, -0.00052368524, -0.0013969156, 0.0004228795, 0.00035871752, 0.0005384502, -0.0013311957, -0.0029773477, 0.0038650346, -0.0011633867, -0.0023660755, 0.0017077908, 0.0021961334, 0.0006281319, -0.0033151563, 0.0007606447, 0.0012392139, -0.00045900035, -4.1516374e-05, -0.000115773175, -0.0007205076, -0.0004977826, 0.0015479261, -0.0019049658, 0.0021489384, -0.0018120165, 0.0013002096, 0.000957606, -0.0016039191, 0.00063169416, 0.00072965585, 0.0013332102, -0.0010823109, -0.00017405974, -0.0012966131, 0.0014629613, -0.0004834378, -0.0031705247, -0.0006029247, 0.0011019809, -0.0003565137, -0.002194894, 0.0014278535, -0.0012428316, 0.00074688066, -0.0006578627, 0.003114514, -0.0012702814, -0.00084892474, -0.00017647143, -0.0012972129, 0.0039084014, 0.000552897, 0.0021850057, -0.001152166, -0.00329524, -0.00022536624, -0.00073611515, -8.166698e-05, 0.0021565175, 0.0008447212, -0.0008911351, -0.0011556969, 0.00067457766, -0.00072404, 0.0013947778, -0.0012857439, -0.0019325112, -0.0027764959, -0.0005854993, 0.0023180614, -0.0019417107, 0.0012382135, -0.0006929131, 0.00036734215, 0.0014599329, -0.0012984697, 0.0006704243, 0.0016269761, -0.002028312, 0.0014493433, 0.0025365523, -1.1573032, -0.00094663136, 0.000688624, 0.0024745723, -0.0007728692, -0.2091691, -0.00039557432, -0.0012210172, 0.03748935, 0.001851404, -0.0013064359, 0.0012913484, 0.00060976273, -0.0019325619, 0.0010623697, 0.0023440104, -0.00020593149, -0.0002527772, -0.0012679629, 0.001189979, 0.0023448044, 0.00090498454, -0.00059587386, 0.00028688592, -0.002156863, 0.00054638705, 0.0005752078, 0.002473916, -2.2143562e-05, -0.00024080311, -0.0015332926, 0.0007700196, -0.001969969, -5.7666097e-05, -0.32806015, -0.0015070599, -0.00017175918, -0.0011345637, 0.061382543, -0.02701125, 0.22567974, 0.00066619134, 0.025938291, 0.0005111116, 0.0007334361, 0.17964956, 0.0027253954, -0.0031137331, -0.30852786, 0.0027585053, 0.00042663421, -3.2996235e-05, 0.0024055177, -0.0012993129, 0.0013898232, -1.9790547e-05, -0.0011483122, -0.0013715855, 0.0026222975, -0.0006308459, -0.0007956137, 0.0003039611, -0.000583443, -0.80567193, 0.0013047734, 0.001029006, -0.0018067342, -0.001081785, -0.0011528225, -9.316974e-05, 0.000859855, 0.0004298677, 0.0005891994, -3.575041e-05, -0.000612959, 0.0017587951, 0.0010002505, -0.0012805548, -0.0004450389, -0.00064262113, -5.014101e-05, -0.0023363426, -0.00089910504, -0.0021772631, 0.00028893806, 0.0021029166, 0.00049355824, 0.0012321873, 0.0012807874, 0.004183813, -5.3798474e-05, -0.0019400036, -0.00088511663, 0.0020821635, -0.0014573553, -0.0012680411, 0.0011150953, 0.0005308816, 0.0012667457, 0.0013763929, -0.002367738, -0.0007517864, 0.0012992506, 0.0009180983, 0.0010891894, 0.0004992955, 0.0013450463, 0.0017407209, -0.0009004941, -0.00013270392, -0.00088881765, -0.0006455113, 0.0008948995, 0.0007312122, -0.00014637382, 0.0012462036, 0.0010432119, 0.0013020702, 0.0005666744, 0.00048163906, -0.0019671675, -0.0008732393, 0.001444963, 0.0019314182, 0.0005235166, -0.0004902595, 0.0013807099, 0.0011981734, 0.001633476, -0.0014782086, -0.0011726404, -0.0024722097, 0.0018210104, 0.0013117983, -0.0010811354, -0.0011516057, 0.0012715033, -0.0012867798, 0.0016218809, 0.0009265945, 0.00057158957, -0.00037225784, -0.00015087018, 0.0012525723, -0.0005296772, -0.0006436495, 0.0005862933, 0.0046517737, 0.0011294845, -0.001628991, -0.0005480301, -0.0010049624, 0.006383844, -0.0018936641, 0.00059550075, -0.001860342, -0.00046826992, 0.0019548768, 0.0013982791, 0.00078348443, 0.00082458346, 0.00039492652, -0.0006578189, 0.0006289874, -0.00090133765, 0.000938141, 0.001144007, -0.00081608124, 0.0019302499, 0.0023431825, 0.0008081936, 0.00093818223, 0.0006602337, 0.004157707, -0.00023765536, 0.0011004156, -0.0019116683, -0.0031103091, -0.001004043, -0.0020076344, -0.0006330885, -0.0009878653, -0.0006020933, -0.0006084705, -0.0022861713, 0.0019326812, 0.0038822622, 0.00057339855, -0.002182159, 0.00012770243, -0.00047391735, 0.0010679951, 0.0014621627, 0.0013405384, -0.0001557804, 0.0012176181, -0.0021573151, -0.0021824893, -0.00028410775, -0.17649986, -0.017929431, 0.0025741798, 0.0003721002, 0.00037878501, -0.0002656171, 0.0007742127, 0.00034047337, -0.00041281432, 0.4254044, 0.0010313458, 0.00062762597, 0.0010236118, -0.00326314, -0.0006595307, -0.0024652164, 0.0010849996, 0.0026163366, -0.0008415323, -0.002319624, 0.00026689714, 0.00045878993, 0.000736528, -0.00064939895, -0.0006161196, 0.0024708477, -0.0022549187, 0.00039050143, 0.0009113516, 0.0023600587, -0.00017367158, 0.0007650885, 0.00020406596, 0.0012793152, -5.072284e-05, -0.04768403, 0.0032717832, -0.0002405702, 0.0024676365, 0.000273359, -0.8093763, 3.0713156e-05, 0.0013024309, 0.00016448615, 0.0013373831, 0.0016591898, 0.00088920863, 0.0010103123, 0.0012791904, -0.00437539, -0.0015142618, -2.8067152e-05, 0.000574687, -0.0047548474, 0.002475785, -2.343033e-06, -0.0019662664, -0.0016207703, 0.00074785616, -0.00058888766, 0.001149456, -0.00048597547, 0.0010116056, -0.0011332566, 0.0004468002, -0.0010185712, -0.0017985717, -0.0015662258, -0.0031256434, 0.0023820426, -0.00057465426, 0.0005848011, 0.0009062479, -4.489161e-05, -0.00011971081, -0.4991378, -0.00061108166, 0.00085090374, -0.00061446754, -0.0011604493, -0.0009907943, 0.00030631924, -0.002022092, -9.592585e-05, 0.00066609564, 0.00032824726, -0.0021054724, -0.0022568477, 0.000751613, 0.0010986597, -0.00079894706, 0.000511821, -0.0014026293, -0.00045882777, 0.0008768943, 0.00054661476, -0.0012192698, 0.00037957833, 0.00034392957, -0.002123164, 0.00084054883, 0.0014054563, 0.00056819076, -0.00020395499, 0.0023029174, -0.0013072693, -0.0028448892, 0.00091998425, -0.0016216347, -0.00044941716, 0.0013111362, -0.0019983724, 0.0006111636, 0.0006251653, -3.257813e-05, 0.0022724443, -0.00080642547, 0.0005143353, -0.0017940504, -0.00082561106, 0.0026532817, 0.00036315573, 0.0017820209, -0.0005302697, -0.00089889835, 0.0012182683, -0.0028420254, 0.003361728, 0.0006190232, 0.0015805839, 0.0018129364, 0.0010394725, -0.0012769892, 0.00015637901, -0.000766663, -0.0007346379, 0.000830306, 0.0019758304, 0.0004482906, 0.001270221, -0.0007008682, 1.4677411e-05, 0.002367332, 0.0011403314, 0.0010916721, 0.0010528102, 0.00076108007, 0.0022254372, -0.00048269943, -0.0011241823, 0.0017692478, 0.0009755523, -0.00018577516, -0.0011165324, -0.001075452, 0.001270392, 0.0015279887, 0.0011752837, 0.0012279128, -0.00029896427, 0.0006855486, 0.0062176725, 0.00066344347, -0.04406686, -0.0003129184, -0.001038217, -0.032104574, 0.0012828264, 0.0019114891, -0.22191979, 0.00090928527, -0.0024545712, 0.001724268, 0.0003883246, -0.00021023408, 0.0007643391, 0.0014915782, -0.00027849787, 0.0012770935, -0.0028878339, 0.001445725, -0.0012872599, 0.0012594708, -0.001958781, 0.00022168062, -0.00053795474, -0.0017815011, -0.0032006544, -0.0012642967, -0.0008423195, 0.000770492, -0.0009991573, 0.00045336245, -6.770305e-05, -4.681889e-05, 0.44839722, 0.0012584841, -0.0005470386, -0.0003128354, -0.0013342974, -0.17287426, -0.13737145, 0.0022002535, 0.00024515102, -0.0020301817, 0.0019484656, -0.00020993414, 0.0016351877, 0.0010087326, -1.3317968, 0.000961154, 0.0008415456, 0.002228216, -0.002710897, 0.00049156067, 0.0007663108, 0.0012063832, 0.00031609074, 0.0006525947, 0.00074741826, 0.00079070096, 0.0004392412, -0.002383849, 0.00221438, 0.059963148, -0.0004512617, 0.00047189498, 0.0012621807, -0.0038987047, -0.000255045, -0.0011307937, -0.0012998243, 1.2920753, 0.0003443872, 0.0001603, 0.111515686, -0.003043843, 0.0028655026, 0.001659125, 0.00026403437, -0.0010059658, -0.002412638, -0.00011805864, -0.0010871144, 0.00010231181, 0.00047895516, -0.0019363752, -0.0007253074, 0.0029163565, 0.00030269276, -0.0014986645, -0.0008526757, 3.7509017e-07, -0.00046853884, -0.001129912, -0.0012048505, 0.0013464, -0.0022763475, 0.001299087, -0.003673375, -0.00047758245, 0.0015639223, -0.0024808785, -0.00030219404, -0.00089140603, -0.00022212346, 0.0007867453, -0.0008618473, -0.0021670926, -0.00056413724, 0.0009792042, -0.0005341962, -0.0028762384, -0.0024217763, 0.001062568, 0.0013897975, 0.0017786577, -0.00087415986, 0.0008926985, -0.0013136447};
float bias_2[] = {0.3090079, -0.051982105, -0.06460163, -0.17716272, -0.13576978, 0.36606768, -0.089766026, -0.17101577, -0.13192403, -0.14616802, -0.028490987, 0.50517714, -0.048563454, -0.15290858, 0.4662932, 0.11636852, -0.14390483, -0.086982325, -0.12889057, 0.13309093, -0.77096546, -0.1452841, 0.38164878, -0.21728745, -0.08769122, -0.0172797, -0.02395698, -0.028098239, 0.19658147, 0.5236913, -0.03181346, -0.09687159, -0.066887826, -0.070892535, 0.44717515, -0.26850033, -0.29156676, -0.13770467, 0.09244421, -0.07171738};
float weight_3[] = {-0.32784095, 6.94918e-06, 0.0007577465, 0.8298363, 0.00329465, -0.50502765, 0.0015296638, 0.0019556987, 0.00076351635, -0.002903759, 9.383145e-05, 0.92877173, -0.00020583882, 0.00051986286, 9.202669e-05, -0.28413957, -0.0020331554, 0.00041742448, -0.00090556056, 0.09399635, -1.0047389, 0.0008585579, 0.46584404, 0.0029056347, -0.000113447546, -0.00088892336, 8.4630796e-05, 0.0019421186, -0.024088623, 0.16494915, 0.001094152, 0.0020046923, 0.0032955795, 0.31905323, 0.58741117, 0.0012273464, 0.00053326326, -0.31273776, -1.3155366, -0.0021484252, -0.42273584, -0.0010144889, 0.00029319478, 0.18193905, 0.00063524634, 0.14298941, 0.0011998776, 0.0012950776, 0.0021642265, 0.0023612478, -0.0031268378, 0.12730129, 0.0009214684, 0.00059068296, 1.1117404, -0.8077132, 0.00037677298, -4.3681575e-05, -0.0011463123, -0.019261438, -0.36569577, 0.0010075374, 0.3883996, 0.0003645932, -0.0024851721, -0.0024180852, 0.0012206407, -0.0013034574, -0.17973533, -0.47509035, 8.2212966e-05, -0.0033135177, -0.00021220034, 0.09441769, -0.06379976, 0.0018508269, -4.5946334e-05, 0.2056332, -0.4954096, 0.0025588102, -0.019296974, 0.0008236605, -0.0012215237, -0.3746888, -0.0024728538, 0.7923286, 0.0020367815, 0.0006575579, -0.0019233992, 0.00026557012, 0.0005789605, -0.08172551, 0.00017418654, -0.00060738134, 0.56421214, 0.3011046, 0.001931363, -0.00086233264, 0.00058572297, 0.1349979, -0.8074152, 0.0012986835, 0.84701365, -0.0003994626, 0.0014451204, -0.0009792973, -0.002084165, 0.0012451793, -0.837255, 0.5855722, 0.004165028, -0.0017661303, -0.002302483, -0.00015664683, 0.21522743, 0.00018033074, -0.0014102974, -0.0027840326, -0.7679221, 0.00090545067};
float bias_3[] = {0.103118576, 0.25755548, 0.15625933};
