float weight_1[] = {0.001364562, -0.0011333195, 0.0007985289, -0.0014495396, -0.00075955805, -0.0002123345, 0.003316904, -1.3954879e-05, -0.00012951635, -0.0012056322, -0.0018262528, 0.0016418747, 8.193654e-05, 0.001968158, 0.00046270096, -1.5631185, 0.28705457, -0.15935884, 0.00010453083, 0.0016406515, -0.0013244646, -0.00049541926, -0.005186603, -0.00038533835, 0.0006019632, -0.0010321772, -0.00016189477, -2.6164253e-07, -6.7763554e-05, -1.4086694e-05, -3.7717225e-05, -0.0047611245, 0.001855263, 0.0025352146, -0.0008545004, -0.0008836315, 0.66543543, 1.1844112, 0.14241213, 0.0007740385, -0.0011617843, 0.0008699015, 0.0017967246, -2.1920365e-05, 0.0022442546, 0.000429851, 0.0011424442, 0.003729882, 1.0194094, 7.4209805e-05, -0.19855669, 0.016070878, 1.6914724, -2.3100705, 0.00021919765, -0.0012917828, 0.0004569078, -0.0017331586, -0.0012981414, 0.0001200391, -8.621037, 0.4836809, 0.09239813, 0.0008715278, -0.0010547953, -0.0004998965, -0.37668175, 1.9518301, -1.6327963, -0.00014953048, 0.00043311017, -0.0008063162, 0.0028647063, -0.00024722447, -0.00227175, 0.8806933, 0.102031104, -0.5315519, 0.00017062385, -0.00050259737, -0.0020394041, -0.7129786, -0.49758947, -0.0016149522, 1.2796026, -0.00052162324, 0.47024995, -0.0006062046, -0.0005197865, 0.0003279501, 0.0040092487, 0.00060405454, 0.0004980676, -0.0013236402, 0.0010547467, 0.0011587982, 0.0010046676, -0.001180067, 0.00047153558, 0.0019729217, 0.0037119663, 0.00015907636, 0.0010065029, 0.00074995414, -0.00067757117, -0.0010380122, 0.00033675611, 0.0023417356, 0.3788795, -1.7048088, -0.5145324, 0.41244918, 1.7121096, 0.034178406, -0.00032397185, -0.000815456, -0.0014318038, -0.0014468187, -0.00011642167, -0.0021432904};
float bias_1[] = {-0.0047041075, -0.061168555, -0.21370576, -0.5066484, -0.5619473, 0.5597187, -0.25803772, -0.0098744705, -0.59374684, -0.019560523, -0.042795394, -0.00650711, -0.36962652, -0.0044170422, -0.4810244, -0.22692055, -0.11314868, 0.14133057, -0.07678487, -0.004408476, 0.09688345, -0.0586503, 0.27192986, -0.30221227, -0.57543606, 0.10107128, -0.2578088, 0.36170277, -0.06533319, -0.49461117, -0.445733, -0.004902799, -0.01711007, -0.0057198303, -0.40569875, -0.5598387, 0.28705597, -0.18298776, -0.022817438, -0.19777879};
float weight_2[] = {0.00077164255, -0.0013723965, 0.0026596598, 0.0013556085, 0.0013152559, -0.00020196196, -0.0007492145, -0.00074266514, -0.0011312725, -0.0018615223, 0.00040071993, -0.00040925312, 0.0020848922, 0.0002758642, 0.0022652247, 0.0011763939, -0.0003718332, 0.0017346581, 0.00036820435, -0.0032712533, -0.0025486872, 0.0012943968, 0.00031401566, 0.0011438371, -0.0007509433, -3.6554644e-05, 0.0030111591, 0.001002942, 0.0014044236, -0.0015033432, -0.0013458366, 0.00084415195, 0.004223208, -0.001292913, -0.0016075437, -0.00036642706, 0.0002630819, -0.00018937202, -0.002202978, 0.0007244763, 0.0011355223, -0.00029463717, -7.436238e-05, -0.00028138678, 0.0009691509, 0.00023597572, -0.0036016977, -0.0005520752, -0.0041591753, 0.0023994315, -0.0012804967, -0.0020957175, 0.00091079273, -0.0006534494, -0.001909398, 0.0021677841, -0.00015967886, 0.0023066546, 0.0006551237, 0.00053221395, 0.00078408094, -0.0012420054, -0.0017969765, 0.000346608, 0.0027069452, 0.00018335157, -0.0014973023, -3.8454833e-05, 0.0005769606, 0.00023964577, 0.0004787838, 0.00066867296, 0.00091768074, -9.220489e-05, 0.0008170273, 0.0004896438, 0.0014188502, 0.00011035972, 0.0021908525, 0.00060597726, 0.00012089306, -0.0042652255, 0.0013169189, 0.003418202, 0.0015191151, -0.00088134466, 0.00021802739, -0.0011482195, 0.00042170216, -3.602699e-05, 0.0028719637, -0.00078795594, 0.1384368, -0.0004882995, -0.0011772844, -0.0010111866, -3.7322978e-05, 0.07720987, -0.0012846524, -0.0006828903, -0.33320063, 0.0006075682, 1.5255971, 0.0018855919, -0.0011866135, -0.042038433, -0.0007734313, -0.27915388, -0.43282226, 0.0023949668, -5.739089e-05, -0.00018541724, 0.0015038328, 0.00017089548, 0.0024238941, -0.0006830788, -0.32959515, -0.006988975, -4.9034017e-05, -0.0013553175, -0.0016128313, 0.0010842663, 0.00057397527, 0.002543198, 0.001440856, -0.50801075, -0.001972733, -0.0011061814, 0.0010717376, 2.362467e-05, -0.00076557405, -0.0025735819, -0.8301127, 0.0003714259, -0.00042376822, -0.0011067315, 0.85987127, -0.51989067, 0.0010039003, -0.0021000453, -0.7159085, 0.00037751574, -0.4260423, 0.0015924053, 0.0003099476, 0.07621115, -0.0006986442, 0.0012157996, -1.0340497, 0.00028409262, 0.0002407367, 0.0013030076, 0.0019534542, 0.00062304054, 0.00027621555, -0.0010867079, 0.027096245, 0.42867032, 0.0020013787, -0.0004756332, 0.0037606305, -0.00020477641, -0.0035754172, -0.0008395593, 0.0024354234, -9.520697e-05, 0.0024763555, 0.000845909, -0.0007375081, 0.0018489347, 0.0009128869, -0.0007566769, 0.0012480549, -0.0003300459, -3.604064e-05, -0.0016999927, 0.00024624285, 0.0030540559, 7.750266e-05, -0.00022541973, 0.002834697, 0.0021154946, -0.0013716145, -0.00068458304, 0.0032242932, -0.00021586241, -0.0023348145, 0.0010672724, 0.001208481, 0.0007765069, -0.00079193525, 0.0026833261, -0.0019250443, -0.002202497, -0.0003564795, -0.00071701163, -0.0007251235, 0.00048703048, -9.041474e-05, 0.0011724087, -0.0005975172, -9.598727e-05, 0.0011698927, 0.0010417479, 0.0030684883, 0.00046112188, -0.00016057701, -0.0013479288, 0.00018808572, 0.0032191295, -0.0032931343, -0.0007452592, 0.0015608656, 0.0019693696, 0.0018395102, 0.00045925367, 0.0012896718, 0.00013522053, 0.00075884024, 0.00078011956, 0.00017555943, 0.00017629526, 0.0021053117, -0.0006871074, 0.001972804, 0.0012649648, -0.0021184688, -0.0019633332, -0.0017610332, -0.0016513797, 0.002355698, 0.00024045026, -0.0016270452, 0.00076417765, 0.003444443, 0.0005176, -0.00096941175, -0.0009820408, 0.0019460828, -0.000952265, -0.0008449267, 0.0033142837, 0.00042039194, 0.0021255296, -0.0006803933, -0.0024061478, -0.0011430713, -0.00037647312, -0.0015642099, 0.0019530333, 0.00051434623, 0.0013236015, -0.00059192703, -0.0004446521, 0.00041358548, 0.0014826765, -0.001239354, -0.0017837385, -0.0012823399, 0.00016469508, 0.00065093016, 0.00057658274, 0.00080951274, 0.00030353398, 0.0018487711, -0.0014528915, -0.00068498286, -0.0006301357, 0.0014483857, 0.0015162815, -0.0014895773, 0.0003524673, 0.0006896404, 0.00030116888, 0.002406578, 0.0003795887, -0.00075898133, -0.0014516839, -0.00133208, -0.00082747586, -0.0015551909, 0.00078030804, -0.00088037224, -0.0010317422, -0.0007245851, -0.00086991687, -0.00038900095, 0.0013040265, -4.27208e-05, -0.00064182, -0.0013013631, 0.0021137833, -0.00037612725, 0.00052200776, -0.00130357, -0.00015211693, 0.00059680466, 0.0005956978, -0.0014304846, -0.00027750223, 0.0007882847, -0.0031558154, 0.0004760729, 0.0013487651, -0.0046474976, 0.0005984171, -0.00062353315, -0.00043659628, -0.0024983382, -0.00036320044, -0.0015210084, -0.002338375, 0.00020401477, -0.0010579325, -0.00060657517, -2.3599947e-05, 0.0008120423, -0.0011095942, 0.0007818731, 0.00012698944, -0.0012607505, 0.0013171309, -0.0010500618, -0.0006912972, -0.0006764986, 0.0006558731, -0.0007342573, -0.0018066025, -0.0002047916, 0.000779463, -0.0024599251, -0.0016075945, 0.0010141578, -0.00067265105, 0.0013024234, -0.0021342603, -0.0007146589, -0.00054100755, -0.00021841441, 0.0004574221, -0.0017362146, 0.0025223466, 0.002056222, 0.00045241351, -0.0015647793, -0.002164842, -0.0011587436, 0.0017605494, -0.00063515495, -0.00078925246, 0.0018196614, -0.0011081779, -8.866342e-05, 0.00020077551, 0.0010393827, -0.0015353612, -0.0005392947, 0.00014224974, -0.0030669607, 0.0025074305, -0.0013155511, 0.0013822082, 0.0004616282, 0.0009768504, 0.00063582347, -0.0041953074, 0.00083834777, -5.9233207e-05, 0.0008958899, -0.0007370838, 0.002262128, 0.00022384175, 0.0018235096, -0.0006265957, -0.0007546162, -0.0019280246, -0.12623015, -0.4834771, -0.00079929584, -0.00062502216, -0.95928085, 0.0014204107, 0.20208144, 0.0034627416, 0.00022947977, 0.050694715, -0.0011879159, -0.20090969, -1.7749273e-05, 0.0002754347, 0.0016297171, -0.0005832322, 0.0034933873, -0.0007848479, -0.0007818123, -0.0017985664, -0.25440857, -0.25878546, -0.0007759624, 0.0007221051, -0.000881038, -0.0013240094, 0.00057984237, 0.00013236329, 0.0035385345, 0.00211749, -7.9833786e-05, 0.0011268924, -0.0014333345, 0.0010962626, -0.0017757602, 0.003253385, 0.00045668057, 0.00070233154, 4.9641356e-05, -0.0065246043, -0.00022853783, 0.0021482357, 0.0019528471, 0.001882976, 0.0008391533, -0.0012018603, 0.00042658922, 0.00031333155, -0.0010126351, 0.0007072733, -0.00037238328, 0.00026331583, -8.719851e-05, -0.0010922034, 0.00021142705, 0.001634455, 0.0004971356, -0.00015650125, 0.0007556584, 0.0022780772, -0.00020488491, 0.00085901027, -0.0010279608, -0.00080192037, 0.0008358485, -0.0012949549, -5.794177e-05, 0.00024794287, 1.5277197e-05, 0.15156287, -0.0019536256, 0.0011835825, -0.0015660197, -3.941603e-05, -2.2635562e-05, 0.0019032992, 0.55347675, -0.0006341831, -0.0007337029, 0.0026895145, 0.09170892, -0.41797295, -8.4470725e-05, 0.0008474253, -1.9888955, 0.0022361823, 0.21364704, 0.00054047426, -0.0012798575, -0.00032617856, 0.00070508674, 0.00080555136, -0.023507519, 0.0011546431, 0.0029022084, 0.0024682614, -0.0028278108, -0.0014718802, 0.0009638213, -0.0018516202, -0.5985579, -0.6981253, -0.0011569425, 0.004292132, -0.0019451277, 0.0012996572, 0.0008431948, -0.0011624037, 0.003757844, -0.069362715, -0.0033219224, 4.4592947e-05, -0.0005442359, -5.506526e-05, 0.00078533177, 0.0019735484, 0.0015195078, -0.0013285871, -0.001888925, 0.0017573264, -0.00054243277, -0.032103952, -0.0011738318, 0.00025287294, -3.6114564, 0.0018838188, 1.1811802, -0.0023356143, -0.0011286592, 0.4615722, -6.9863745e-07, 0.2964725, 0.05790579, -0.0014242216, 0.0026250542, 0.00018510525, -0.0010715931, 0.00024265511, -0.001151436, 0.0019405128, 0.09517093, -0.17952333, 8.104535e-05, -0.0019432865, -0.0007301064, -0.00029759563, -0.0010645434, 0.0005972259, -0.0010851282, 0.0012748953, -0.0004227995, -0.0005716265, -0.0026886025, 0.0012278615, 0.0013229504, -0.0017494488, -0.0012163152, -1.8144783e-06, -3.1010393e-05, -0.00050168147, 0.0010727454, 0.00055693125, 0.0012486095, -0.0014028609, 0.0009457845, 0.00054291077, -0.0004537483, 0.0036394878, 0.0003310627, 0.00040242216, -0.0038792435, 0.00023059605, 0.0025767107, 0.00049139594, 0.00069166103, -0.002020013, -0.0010930932, -0.0004480613, 0.00046981208, -0.00064172246, 0.0003802582, -0.0006959487, -0.0008823537, 0.0005438061, -0.00064123527, -0.0005983045, -0.0002897161, 0.00026361505, -0.0015736668, 0.00044859434, 0.0022486546, 0.0015541989, 0.00075977575, 0.00011757173, -0.00022307009, -0.0006020009, -0.0011370415, -0.00037316355, -0.0008780927, -0.00024923525, -0.0017127872, 0.0009452789, 0.00066362595, 0.0009349825, 0.001156399, 0.00013669505, -0.003296249, 0.0014279541, -0.00312651, 0.00059038313, -0.00036025, -0.0014485058, 0.0011985747, -0.00015104338, -0.00014336198, -0.002033283, -0.00022225198, -0.0008228916, -0.00050308876, -0.0016894162, 0.0016989664, -0.00066561333, -0.0007669362, 0.0003441698, 0.0018843896, -0.00075976306, 0.0012184035, -0.0011417973, 0.00027950096, 0.00310431, 0.0003525837, -0.0011450194, 0.0010357025, 5.8841775e-05, 0.00035367615, -0.00090937736, -0.0004220511, -0.00030117782, -0.0012594134, -0.002423571, -0.0013879683, 0.0005455235, 0.001724688, -0.00116257, 0.0021621245, -0.001087463, 0.0004486596, -0.00035146216, 0.00046436096, 0.0031953095, -9.415067e-06, 0.0020045396, 0.00089457724, -0.0014054731, -0.00046702666, 0.0024621729, -0.0015448796, 0.0024406826, 0.00094611634, 0.0015584452, 0.0021094098, -0.00075081305, -0.0013378414, 0.0014498398, -0.0012426861, 0.0012741127, -0.0006474664, 0.0010642842, 0.00372176, -0.0010682927, 0.0012562241, 0.001251187, -0.00046465266, 0.00074739486, 0.0013311794, -0.00056207256, 0.00058155705, 0.0010688377, 0.00039993078, -0.0013173381, 0.0012695317, 0.00042701565, 0.00055846944, 0.001534397, 0.0009125541, 0.0015231222, -0.00062492874, -0.00016084133, -0.0008665583, -0.00216559, 0.0004759163, -0.00067576533, -0.00030716392, -0.002682744, -0.000995361, -0.0011148902, 0.0019320858, -0.000674766, 0.002375922, 0.0010854327, 0.0018031985, 0.0009757046, -0.00036829142, 0.0014031134, -0.0003893439, -0.00051918166, 4.289468e-05, 0.00014345092, 0.0009550783, -0.0057182843, -0.0011212687, 0.00014491082, 0.0021538096, 0.00013053286, -0.0014475796, -0.0020314371, -0.0007084177, -0.000901734, -0.002068602, -0.0015380692, 0.006018748, -0.13916385, -0.0023760218, 0.0019857772, -0.6644837, -0.00088025315, -0.19087169, 0.0026706592, -0.00051168335, -0.0013677224, -0.0008150708, 0.08614914, -0.23181008, -0.00079052243, 0.0009441703, 0.0012802628, -0.0017496541, -0.0009476258, -0.00039576925, -0.0010820671, 0.6936906, -0.5609064, 0.00051613076, 0.0005173294, 0.0013503744, -0.0009111015, 0.0013204301, -0.004315148, 0.0026400755, -0.0035457858, 0.0008819029, 0.0014719256, -0.00021709496, 0.0010745102, -0.00016966223, 0.004005721, -0.00086513, 0.00052301167, -0.0011495163, 0.00036906204, -0.00072387327, -0.0012206987, -0.00029663392, -0.0026682084, -0.00067245954, -0.00071650906, 0.00052911905, 0.0026918831, -0.00083145377, -0.0010711004, 0.00019182242, 0.00021508394, -0.00015702489, -9.065389e-05, 0.0009529918, -0.0004371478, -0.002011729, -0.00078612997, -0.001270096, -0.0003247846, -8.779622e-06, 0.0006756766, -0.00024107163, -0.0011508145, 0.00056426134, 0.0007008845, 0.0004907873, 0.001171077, -0.00014627264, 2.4103501e-05, -0.0012436175, 0.0004969227, -0.0010976695, 0.0012950975, -0.0009875237, -0.00035052394, -0.00074682396, -0.00082251953, 0.0008984014, -0.0005981511, 0.00091700495, -0.00093541277, -0.00023894466, 0.0013042198, 0.00035245897, 0.0006733253, -0.0016571075, -0.003827544, 0.0011044971, 0.0006430698, 0.0006727319, 0.002012277, -0.0011954857, -0.001209085, -0.0009405392, 0.001370382, 0.0011623539, -0.002426772, 5.1140785e-05, -0.00022587547, 0.001963789, 7.643987e-05, -0.00026727418, -0.001811603, 0.00016279647, -0.0006004572, -0.0029637357, 0.0026556328, 0.0011093639, -0.0005188096, -5.4345233e-05, 0.0025435383, 0.0046167453, 0.0002798764, 0.0008902288, -0.0008072043, -0.0006534626, 0.0020235186, 0.0012784459, -0.001250311, -0.0012227971, 0.00042666576, -0.0005383425, 0.00046838602, -0.0007934156, -0.0030593895, -0.0005626877, 0.0009060516, -0.00024459622, 0.001534171, 0.00013294007, 0.00046814952, 0.0029880325, 2.8032693e-05, 0.00022605364, -0.0004157289, -0.00038096675, 0.0033794339, -0.0028630479, 0.0004294333, -0.0011850604, -0.0019074203, 0.00016044224, 0.0011715252, 0.000334909, -1.3203826e-06, 0.00074651674, -0.00046574755, -0.0008050833, -0.00064402446, 0.0011377034, 0.001257784, 0.00039097396, -5.346228e-05, 6.460969e-05, -0.0016950042, 0.0017834237, 0.00028881192, 0.001169106, -0.0017956027, 0.00031739456, -0.00088159763, 0.0015208275, 0.00015285565, -0.0025084773, 0.0017151982, 0.00035109476, -0.0003878069, -0.004532912, 0.0008509252, -0.001648874, -0.0013679707, -0.0011339796, 0.0008091027, 0.0025756932, 0.0011175111, -0.000382066, -0.00018578023, 0.001382042, 0.00038559525, -0.0012484351, 0.0007173263, 0.0008773594, -0.0008150928, 0.0017122832, 0.0017549684, 0.0015501204, 0.00014966843, 2.1860295e-05, -0.0026160306, 0.0009871988, -0.004128865, -0.0026078452, -0.0009441019, 0.0024919799, 0.0017697618, 0.00056988583, -0.0004715406, 0.00033114525, -0.004780972, -0.0023892936, -0.0007890729, 0.00031681592, 3.0716037e-05, -0.001965333, -0.0011199785, -0.0025094212, -0.00094132335, 0.00037670275, 0.00041149862, 0.002900164, -0.0020726682, 0.0015756873, -0.0010389539, 3.791989e-05, 0.0004953486, 0.00019108126, -0.00078644365, 0.0010458909, 0.00020355871, 0.0003598163, 0.0007862145, 0.0007914994, 0.0014308698, 0.0019802456, 0.0014495563, -0.0004783487, -0.0025305063, 0.0012013003, 0.5048564, 0.0005005948, -0.0018803772, -8.440111e-05, -0.00023810222, -0.00016199087, -0.0023740497, 0.083209366, -0.0012891858, -0.00034530018, 0.0010900977, 0.050084915, 0.235393, 0.0006391999, 0.002918626, 0.25746375, 0.0016921966, 0.102812715, -0.0010939945, 0.002042496, 0.7311991, -0.0005451686, 0.0006617164, 0.06833362, 0.000117120566, 0.00025801762, 0.001896325, 9.973446e-05, 0.00018078712, -0.000252916, 0.00032525836, 0.22758563, 0.0007819738, -0.0007170514, 0.0003608266, -6.460893e-05, 0.0021816907, -0.0011924134, 0.0009622463, -0.00084314094, -0.41266912, -0.00271395, -0.00013697764, -0.0019460958, -8.294235e-05, -0.0028129565, -0.00047646114, -0.14375897, 0.0004969004, 0.0015846831, 0.00038940157, 0.31819034, 0.25899205, 0.0016658038, 0.00091624854, -7.307849e-05, 0.0013897081, -0.2523247, 0.0007500262, 0.0020594243, 0.0011242568, -4.8646063e-05, -0.0007744449, 0.000720702, -0.00014772038, -0.002533869, 0.0011202208, -0.001582507, -0.00022140355, 7.8197714e-05, -0.00060067914, -0.025210794, -0.6215062, 0.0011925225, 0.0003255505, -0.002878882, 0.00053449546, 0.0032451309, 0.00015102199, -0.0018439766, -0.026518513, 2.3314817e-05, -0.0011562479, 0.00059920654, -9.035677e-05, 0.0012749641, 0.00047172466, 0.0005126697, 0.00050721696, 0.00073441234, -0.00080846867, 0.0019740567, -0.055363983, -0.00077396026, -0.0013149211, -0.00031761365, -0.00024401944, -0.044924527, -0.0015148944, -0.00081626384, 0.005375713, 0.0032336123, -0.023885185, 0.6494147, 0.00036174065, -0.00023597991, 0.00024094101, 0.00076035096, 0.00016226224, 0.00050557056, 0.0011862771, -0.00013819875, -0.661893, -0.0004367953, -0.0015978381, 0.00047400082, -0.00032521808, -0.00073957146, -0.0026541515, -0.0017173471, -0.0021848439, -0.0005843926, 0.001434677, 0.001044242, 0.0010541264, 0.00057185127, -0.00151429, -0.004705944, 0.0012625009, -0.00067913684, -0.003704468, -0.0040713623, 0.0011772567, 0.00032701012, -0.0015370545, 0.0021932474, 0.0011745662, -0.0003005839, -0.0008931642, -0.001834672, -0.00015443121, 0.0025294302, 0.0021422657, -0.00016913255, 0.0013163909, 0.0026194765, 0.0037312564, 0.0025509805, -0.0013226124, 0.0008394848, 0.0005945072, 0.00394368, -0.0013736072, 0.000588043, -0.00084178476, 0.0002600518, 0.0012605808, -0.00043487025, -0.0018402425, -0.00048389522, 0.004277208, 0.0025930316, -0.00085235573, 0.000797128, -0.00074192695, 0.0006412751, 0.00022514391, 0.00032976578, -1.1254102e-05, 0.0011914141, 1.2780714e-05, -0.00087809516, 4.6201632e-05, 0.0014231768, 2.5152782e-05, -0.0011852966, -0.0015146448, -0.0007051253, 0.0006361865, -7.8581346e-05, -0.0013256641, -0.00079401815, -3.0197145e-05, 0.00059654645, -0.0005681883, 0.00027877238, 5.381304e-05, -0.0019506854, 0.0026911984, -0.0018088802, 5.2316464e-06, -0.0011736817, -0.0031819888, -0.0025453097, -0.0029603401, -0.00089089264, -0.0004778937, 0.00074538717, 0.0014133285, -0.0019496119, 0.001003627, 0.00016308161, -0.0006775431, 0.0013369056, 0.0010892426, -0.00085113803, 0.0004742816, 2.7306873e-05, -0.001660083, 0.0022984825, 0.0012182954, 0.00067183573, 0.0020041342, 0.00097396673, 0.0013777022, 0.0015344959, 0.00094249216, 0.0002421508, -0.0012741862, -0.0019783038, 0.0003016143, -0.0017046261, -0.00064328656, 0.0013540208, 0.0010489292, 0.0063613025, -0.00049047434, -0.0018095245, -0.0041895523, 0.00044184522, 0.002197465, 8.733268e-05, -0.0014750845, -0.0018137373, -0.0011882309, 0.0014227561, -0.0010639126, 0.0011197864, -0.0010167554, -5.559725e-05, -0.00048854563, -0.0013076132, -0.0004827734, -0.00050009065, -0.0015208882, -0.0026352871, -3.904075e-05, -0.00041137426, 0.00036995206, -0.0015949189, 0.0026811543, -0.0005478525, 0.0018608567, -0.00038383764, -0.0007514804, 0.0027108884, -0.0014057155, -0.001198846, -0.00076233875, 0.00040393654, 0.0010761215, 0.0008750247, -0.0032304642, 0.00053438684, 0.0011708789, -0.0017958842, 0.0031266077, 7.2568364e-05, -0.001205594, -0.0009720781, 1.9417144e-05, -0.0019107009, 0.0006176401, -0.0007624651, -0.0039563198, 0.00027926007, -0.0005147387, -0.0010058774, -0.0009214126, -0.0014192725, -0.0009765446, -0.00023772859, -0.0014194797, -0.00087866175, -0.00045211142, -0.0005688496, -0.00023369928, -0.00034871453, 7.9569174e-05, 0.00034160784, 0.0004585894, -0.0022526586, -0.0008574902, 7.039006e-05, -0.0027532233, -0.0021436892, -0.0008363411, 0.00025556888, 0.0029334172, -0.00035520026, 0.0020724596, -0.0010353916, 0.0011012361, -2.9199175e-05, -0.0014707549, -0.0012669598, 0.0006684367, 0.0011682212, -0.0024615908, -0.0013099757, -0.00080257707, 0.0008445245, -0.0004856233, 0.00064011075, -0.0016420458, -0.0021702265, 0.0011578976, -0.002688955, 0.0025989576, -1.918408e-05, 0.0022079982, 0.0011695891, -7.8862184e-05, -0.0011315432, -7.4897616e-05, 0.0003947775, -0.00095982105, 0.74386674, -0.0013953187, -0.0006595367, -0.0010147796, -5.558964e-05, -1.3551887, 0.00031470472, -0.0017727307, 0.32508925, 0.0007595619, -0.9062701, 0.000539092, -0.00011145675, -0.45945844, -0.000350932, 0.03712659, 0.051556196, 0.0010379521, -0.00062425097, -0.00063234265, 0.0014835333, 0.001478156, 0.0017075676, -0.00093730795, 0.35952, 0.00087546714, -0.0006160341, -0.00067766494, -0.0008965221, -0.0005989318, -0.00035706302, 0.0003282184, 4.9471288e-05, 0.00054766936, 0.00047797174, 0.0013011547, 0.00134261, -0.0012984762, -0.00075726956, 0.0033014966, 0.0003003484, -0.0012374813, 0.00059643306, -0.001751699, -0.0006004471, -0.0018034918, -0.0013231982, -0.002582787, -0.0012758316, 0.0009990039, 0.00064918265, 0.001960791, -0.0010434756, -0.0006803938, -0.00031475793, -0.0019496637, -0.0025755134, 0.0031380304, 0.00046371386, 0.00092612626, -0.00036471421, 0.0015614262, 0.00032498047, 1.589075e-05, 0.0025587804, -0.00060384127, -0.004735574, -0.0020978888, -0.0018333488, -0.0007386856, 0.00042623602, -0.0008646105, -0.0027771273, -1.1262202, -0.006401055, -0.0012897032, 0.00074965274, -4.17931e-08, 0.0013349815, 0.0019472956, 0.00027118577, 0.00067733985, 0.00013307127, 0.0021191456, 0.0003312445, 0.026590288, 0.0013110768, -0.0011694367, -0.00021817227, 0.00070608367, -0.0009932229, -0.00092131377, 0.0016604846, 0.339117, -0.000104938066, 0.09471012, -0.0011559471, -0.0028806464, -0.0007455113, -0.0006312571, -0.0018319566, 0.00012416783, 0.0010424312, 0.00047236937, 0.3663103, -0.3078475, -0.00022912037, -0.0011931482, -4.9999915e-05, 0.0014003902, -0.001976476, -0.0005216083, 0.0021802266, -0.0005959373, -0.003347903, 0.0014472902, -0.0003190345, 0.0024727434, -0.001720716, 0.00022946275, 0.0020649699, -0.0024756216, 0.00027581287, 0.0018256202, -0.003299084, 0.0013795008, 8.592615e-05, -0.00045512966, -0.00085568253, 0.00097324315, 0.00048611718, 0.0025044647, 0.0002859176, -0.0007516863, 0.0011342771, 0.00069962675, 0.0003359044, -0.0001549221, 0.00030762842, -0.0021946174, -0.00045583083, -0.0007473412, -0.0009909652, 0.00093611726, -0.0024685864, -0.0006161883, 0.00018341554, 0.0015776579, -0.0012367605, -0.00025715743, 0.00042675354, -0.00028102606, -0.00038923055, 0.0003513649, 0.0012258238, -0.0003431117, 0.002183353, 0.0017508024, 0.0015693168, -0.00080410746, 0.00071224244, 0.0007851991, 0.00016601803, -0.00159639, -0.0002892787, 0.00037239183, -0.00024656067, -0.0007009675, 0.000686905, -0.0026400872, 0.0016673196, 0.0006333984, -0.0005936673, 0.0015983955, 0.00031047856, 0.0011927445, -0.00034515653, 0.0012428842, -0.0008829357, 0.0005982669, -0.002566217, -0.00051287416, -0.00024499628, 0.00202606, 0.0014788848, -0.0005390374, 0.0019135415, 0.00060469017, -0.00022806297, 0.00041566673, 0.0016540894, 2.7689028e-05, 0.00080125185, -0.0016463934, 0.00044508989, 8.352124e-05, 0.0005969998, -0.0021810252, 0.00073995406, -0.00047206227, -0.0019285422, 0.001249559, 0.0030879886, 0.00016416505, -0.00043494545, 1.6092847e-05, -0.0018683188, 0.0005233472, -0.0005072727, -0.000290673, 0.0015261968, -0.0011217787, 0.00043081364, 0.0033507019, 0.002747892, -0.00023362666, 0.0019542815, 0.00045991002, -0.0008094482, -0.0010142641, -0.0011204646, -0.00241156, 0.00113981, -0.0019686506, -0.0013121564, -0.0002774934, 0.0021419572, -0.00012206752, 0.0031148791, 0.00042485562, -0.0032001832, 0.0008580154, -0.006023061, 0.0015592831, 0.006351859, -0.0003748254, 0.0019399142, 0.00039707858, -0.0008867852, -0.00073905557, 4.870849e-05, -0.0002603025, 0.001291573, -0.00030130777, 0.00011797465, -0.00037514282, -0.0006796107, -0.0011667936, -0.0009264059, -0.0018278366, -0.00041942493, -0.00070968026, 0.00029789796, -0.00091332936, 0.00091757224, 0.0011951765, 0.0014022815, 0.0026854589, 0.00028982316, 0.0006615021, -8.7366905e-05, 0.0004988705, -0.0008391115, 4.9520488e-05, -0.0013052076, -0.0012234533, -0.0005782838, -4.230997e-05, -0.0021554818, 0.000581754, 0.0013315986, 0.0015200782, -0.0008421886, -0.3819841, 0.0013244856, 0.0014240685, 0.0031099478, -0.00017003706, 0.0029055597, -0.0005258542, -0.7519687, -0.0024618926, 0.0004780367, -0.003695572, 0.23268948, -0.6041366, 0.0010855328, 0.0035523782, 0.16428266, -0.00066977623, -0.00073127117, 0.0025370917, -8.269283e-05, 0.0718889, -0.00080227305, 0.54351294, 0.032354053, -0.00033505907, -0.001024767, -0.0009382565, -5.9418962e-06, -0.0015842319, 0.0013473086, 0.00053822534, -0.61580414, 0.45367324, 0.00028956757, -0.0008507195, -0.0017643484, 0.00074953854, -0.001557773, -0.002421924, 0.001168386, 0.00035762612, -0.00091866317, 0.0019044027, -0.0006717307, 0.0005327787, -0.002214954, -0.0020788638, 0.002309712, 0.0012945984, -0.00050632865, 0.0016712613, 0.00071975583, 0.00011339085, -0.0030417289, 0.00042718963, 0.00267753, -0.00051966007, -0.0030601858, -0.0010131217, 0.00060001714, 0.0026845147, -0.0010808799, 0.0019098578, -0.0018269576, -0.0017778547, -0.002714652, -0.0038992106, 0.0035469928, -0.0010702058, 0.0031131464, 0.0010606046, -0.00071961066, -0.00067279924, 0.004307893, -0.006333482};
float bias_2[] = {-0.11594924, -0.012292121, 0.1920545, 0.41809735, -0.12571906, -0.036906704, -0.019650437, -0.014039131, -0.059325792, 0.123618454, -0.0077782567, 0.27981076, 0.12254757, -0.0997464, -0.11272666, -0.013955159, -0.16907361, -0.06112902, -0.116595015, -0.024512798, -0.10155862, -0.1394041, -0.15023637, -0.33888274, 0.45598274, 0.03229666, -0.11020813, -0.1349153, -0.13331999, -0.128313, -0.03420184, 0.33176035, -0.1050059, 0.3749097, -0.07324216, -0.007015909, -0.011637349, -0.008590456, 0.25649646, -0.12088133};
float weight_3[] = {-0.0010908337, 0.00014959561, -0.80009246, -0.013789398, -0.0024435464, 0.0021691998, 0.00044462905, -0.002555089, -0.00022036437, 0.60026366, -0.00205494, -0.5935677, 1.3022349, 0.00025710766, -0.0014511368, 0.00064404507, 0.0024250238, -0.68873936, 0.0010195216, 0.0006156491, 0.0013312849, 0.00068739534, 0.0032646377, 0.00029735168, -0.52578765, 0.12988617, 0.001148081, 0.00025277777, 0.0016448798, -0.0017468317, -0.0015727738, 0.18735017, 0.0010240863, 0.26778892, -0.0010653273, -6.785791e-06, -0.00064532703, 0.0023417706, 0.48066276, 0.0037764695, -0.0015512571, 0.0009290426, 0.5162997, -2.2897074, -0.0029883976, 0.0015258149, -0.00010540133, -0.0013932958, -0.0019788127, -0.0065097595, 0.0018015954, 0.9702158, -0.057443608, -0.002214434, -0.00090692914, -0.00010530586, -0.00075426325, 0.33270562, -0.0011655181, 0.002121063, 7.299066e-05, -0.0016195251, 0.0008021141, -0.1700926, -0.57647187, 0.5723263, 0.0012169214, -0.0009258529, 0.0006886306, 0.0005532631, -0.0017146814, 0.9721874, -0.0004891383, 0.8389784, 0.0017343158, -0.00082210626, -0.0006873901, -0.001107658, -0.07103264, -0.00024031522, -0.00012448797, -0.0013996082, 0.15983373, -0.10670146, -0.0012975977, 0.0020424034, 0.0013126985, 0.001577526, 0.000938515, -1.1207639, 0.0012360215, 0.27173772, 0.12171222, 0.00075072044, -0.003496861, 0.0008195839, 0.00011887442, 0.83912516, 0.0026404513, 0.0024756594, 0.0010664731, -0.0008760417, -0.0027404674, -0.6833708, 0.075303115, -0.07607946, -0.0038162565, -0.00086735777, -0.001431765, 0.00047469744, -0.0015854397, 0.82880276, 0.000300384, -0.0016038143, 0.0012967386, -0.0007704244, 0.00047864835, 0.0015124563, 0.9264337, 0.0011140706};
float bias_3[] = {0.22490893, 0.040217057, 0.08723519};
